0.848036
0.024390
0.661826
-0.701259
0.352265
-0.800406
-1.012635
0.304398
-0.939920
0.079188
-0.450578
-0.237058
0.114487
1.012901
0.259406
0.114008
0.487209
-0.636668
-0.106718
0.347500
-0.242739
1.085420
-1.448309
-0.475315
0.482189
0.049113
-1.154100
0.022580
-0.014803
0.485101
0.029314
-0.314251
-0.274544
0.350443
0.620008
-0.429420
0.734147
-1.607412
0.053486
-0.565248
-0.408575
-1.019610
-0.265043
-0.803954
-0.485225
-0.716821
-0.664391
-1.156042
-0.415162
-0.123437
0.039211
0.147039
-0.458097
-0.498464
0.655782
-0.126594
-0.203649
-0.398606
-0.115277
-0.583115
-0.781550
0.133491
-0.631282
-0.310167
-0.830819
-0.895723
-0.146503
-0.096925
0.357986
-0.050461
0.254858
-0.502016
-0.340655
0.558501
-0.574409
-0.611996
-1.325629
0.005951
-1.024134
1.543809
0.381478
0.169774
0.325916
-0.259701
-0.115115
0.061757
-1.171495
-0.123756
0.097240
-0.005792
0.068154
-0.488556
-0.103003
-0.927958
-0.075843
-0.444152
-0.193055
-0.034328
0.309853
0.219009
0.737054
-0.631620
0.206535
-0.675856
0.049055
0.970602
-0.164328
0.395142
-0.645214
-0.746289
-0.375700
-0.160666
-0.695330
-0.826007
0.321848
-0.080856
-0.159941
-0.601944
0.090628
-1.790515
0.283842
0.961143
-0.165829
-0.630813
-0.078506
-1.038344
-1.434112
-0.237113
-0.552050
-0.123246
-0.617586
0.077699
-0.022219
0.370277
-0.485553
-0.100376
0.582392
0.200696
-0.807123
-0.831557
-0.114293
-0.107188
-0.487175
-0.608561
0.166003
0.075399
-0.165834
-0.287905
-0.882289
-0.463907
0.337412
0.516408
-0.010260
-0.559140
-0.359499
-0.308030
-0.315292
0.251326
-0.884766
0.175493
0.156040
-0.426648
-0.033900
-0.579314
-0.867659
0.570666
1.067856
-1.122900
0.440058
0.674209
1.611450
-0.828716
0.351754
-1.241322
0.640713
-0.797390
-0.442095
-0.369299
-0.037231
0.901076
-0.220155
-0.871448
0.288637
-0.799745
-0.418791
-1.425772
-0.658034
-0.219315
-0.096085
-0.870480
-0.247754
-0.901181
-0.780102
-0.533064
-0.201867
-0.527632
0.259029
0.109654
-0.965412
-0.054520
0.000053
-1.087678
-0.010962
0.087673
0.130146
-0.420377
-0.836520
-0.367157
0.680309
-0.938144
-0.102842
-0.956600
0.190258
-0.463311
-0.126995
-0.974065
0.618214
-0.590542
0.446770
0.425115
-0.926826
0.435657
1.207638
-0.728010
-0.425852
-1.555243
1.461546
-1.309925
-0.549101
0.352341
-1.030385
0.764159
-1.500467
-0.390514
-0.194225
-0.635190
0.199624
-0.316994
-0.482218
0.650022
-0.406764
0.784014
-0.902281
-0.600737
0.973430
-0.294295
-0.168420
-0.257226
-0.443280
0.028242
-0.125019
-0.955671
-1.052888
0.180859
-0.499992
0.438250
