-0.815962
3.075464
3.661106
0.477757
0.546062
-0.490163
-0.277507
1.364038
0.228714
1.382039
-2.100859
-2.655164
1.760840
0.821082
-0.291011
1.858245
-1.264817
2.169453
0.788789
1.769130
1.617592
1.905689
0.617146
-0.193255
-0.453550
0.688368
0.498408
-2.417314
2.141905
2.330111
-1.139067
2.200952
1.262575
-1.710412
-0.757635
1.929826
1.536246
-0.228946
1.502829
1.852041
1.404295
-0.560856
-0.151094
0.640993
2.283984
-0.850819
1.464504
0.938880
-1.187227
0.669573
0.095708
1.566467
1.357821
-0.731901
-0.897829
1.848894
2.089158
0.777714
0.721081
0.195032
2.287784
-0.515431
-0.244877
-0.078509
0.717734
-1.401796
-0.422477
0.162868
-1.103110
-1.298759
-0.459690
1.829248
1.679260
-1.697773
-1.962318
3.846472
-0.969792
2.319829
0.210106
4.452316
0.456742
2.163096
-0.439113
0.546450
0.765086
1.318066
0.863749
1.510875
2.812368
-1.248361
2.556113
2.248238
-0.384591
-0.997771
0.917629
-0.998932
3.204093
1.227597
-1.921951
-0.549047
-0.491513
1.399744
2.066301
-2.690415
0.669719
-0.114636
-0.984523
-0.737975
-1.643182
-1.971508
2.450902
1.607360
3.537751
0.086310
1.593849
0.326722
-0.982006
-1.210492
-0.788432
-0.297935
3.522424
-0.869272
-2.930922
-3.046540
-1.063124
1.138592
-0.698170
-0.127723
0.821360
2.369336
-0.433807
0.360507
0.037923
-1.741535
0.769753
-1.695443
3.596595
1.885479
0.189933
1.885155
3.403044
0.211389
1.637548
0.191521
3.137124
1.031564
-1.703578
-0.301193
0.991489
2.077735
1.255187
-0.010702
-1.847136
0.609215
-0.867076
0.623373
-0.141387
-1.535156
0.032633
1.466788
-1.471345
2.102897
-0.571056
0.825851
1.404745
1.061923
2.488392
0.476150
1.716997
1.282230
2.987339
0.492040
0.098807
-0.215948
3.259008
-1.042130
-0.213434
3.419683
1.285676
-0.407317
0.964408
-0.827801
0.484728
-0.182011
2.395184
-2.507669
-0.783882
-1.399709
1.817852
-1.293789
-0.077247
0.532582
0.641480
-0.668640
-0.454565
1.011287
2.132901
0.490997
0.315367
1.594816
0.575487
3.220282
-2.080861
0.794666
1.428723
-0.548115
-0.278509
-0.170214
0.146860
2.686167
-0.926437
-1.417674
1.431423
-1.409465
2.110243
0.625666
2.634414
0.592897
2.158771
-1.713135
1.479777
2.071805
1.771530
-0.819180
-0.387212
1.553203
0.721851
3.347123
3.273322
-0.809701
1.452649
2.554107
0.485423
2.172419
1.044632
1.295704
0.855344
-0.248249
0.324403
1.843715
-3.560030
2.193333
0.951643
-1.493868
-0.734003
0.248487
3.824205
1.325767
-0.602894
2.462851
0.810856
0.677929
1.559849
0.098768
0.450744
0.300369
